<?xml version="1.0"?>
<opencv_storage>
<stage2>
  <maxWeakCount>11</maxWeakCount>
  <stageThreshold>-1.0622054338455200e+00</stageThreshold>
  <weakClassifiers>
    <_>
      <internalNodes>
        0 -1 74529 8.1444710493087769e-02</internalNodes>
      <leafValues>
        -1.3897280395030975e-01 8.9497715234756470e-01</leafValues></_>
    <_>
      <internalNodes>
        0 -1 78400 -6.0803489759564400e-03</internalNodes>
      <leafValues>
        4.1933560371398926e-01 -5.2380120754241943e-01</leafValues></_>
    <_>
      <internalNodes>
        0 -1 97013 1.2302402406930923e-02</internalNodes>
      <leafValues>
        -2.3692101240158081e-01 6.8413990736007690e-01</leafValues></_>
    <_>
      <internalNodes>
        0 -1 475 -2.1273100376129150e-01</internalNodes>
      <leafValues>
        6.3494837284088135e-01 -2.3819759488105774e-01</leafValues></_>
    <_>
      <internalNodes>
        0 -1 81153 -4.9953453242778778e-02</internalNodes>
      <leafValues>
        6.6021120548248291e-01 -2.7740108966827393e-01</leafValues></_>
    <_>
      <internalNodes>
        0 -1 10976 -1.3742277398705482e-02</internalNodes>
      <leafValues>
        5.3352171182632446e-01 -2.3882828652858734e-01</leafValues></_>
    <_>
      <internalNodes>
        0 -1 85397 1.3063910882920027e-03</internalNodes>
      <leafValues>
        -3.6443048715591431e-01 3.9657932519912720e-01</leafValues></_>
    <_>
      <internalNodes>
        0 -1 72955 1.1492310464382172e-01</internalNodes>
      <leafValues>
        -2.1703986823558807e-01 6.3678222894668579e-01</leafValues></_>
    <_>
      <internalNodes>
        0 -1 56065 4.1252411901950836e-02</internalNodes>
      <leafValues>
        -2.4595469236373901e-01 6.4975839853286743e-01</leafValues></_>
    <_>
      <internalNodes>
        0 -1 116465 7.2957694530487061e-02</internalNodes>
      <leafValues>
        2.3607389628887177e-01 -7.1082979440689087e-01</leafValues></_>
    <_>
      <internalNodes>
        0 -1 86076 -2.0338136702775955e-02</internalNodes>
      <leafValues>
        3.9373230934143066e-01 -3.4632515907287598e-01</leafValues></_></weakClassifiers></stage2>
</opencv_storage>
