<?xml version="1.0"?>
<opencv_storage>
<stage12>
  <maxWeakCount>17</maxWeakCount>
  <stageThreshold>-9.8556947708129883e-01</stageThreshold>
  <weakClassifiers>
    <_>
      <internalNodes>
        0 -1 49095 4.0535503625869751e-01</internalNodes>
      <leafValues>
        -8.6614176630973816e-02 7.6344084739685059e-01</leafValues></_>
    <_>
      <internalNodes>
        0 -1 484 -2.4375933408737183e-01</internalNodes>
      <leafValues>
        7.3723250627517700e-01 -1.2217695266008377e-01</leafValues></_>
    <_>
      <internalNodes>
        0 -1 57676 -8.1057548522949219e-02</internalNodes>
      <leafValues>
        5.0537830591201782e-01 -2.5113761425018311e-01</leafValues></_>
    <_>
      <internalNodes>
        0 -1 123576 5.7624457404017448e-03</internalNodes>
      <leafValues>
        -2.5809186697006226e-01 3.8797730207443237e-01</leafValues></_>
    <_>
      <internalNodes>
        0 -1 118355 5.3685540333390236e-03</internalNodes>
      <leafValues>
        1.0810800641775131e-01 -7.2428119182586670e-01</leafValues></_>
    <_>
      <internalNodes>
        0 -1 102341 5.3405582904815674e-02</internalNodes>
      <leafValues>
        -1.6860030591487885e-01 5.5354309082031250e-01</leafValues></_>
    <_>
      <internalNodes>
        0 -1 6973 -7.5702639296650887e-03</internalNodes>
      <leafValues>
        -5.7355159521102905e-01 1.6962668299674988e-01</leafValues></_>
    <_>
      <internalNodes>
        0 -1 98316 -9.5389885827898979e-03</internalNodes>
      <leafValues>
        5.2309274673461914e-01 -1.9063310325145721e-01</leafValues></_>
    <_>
      <internalNodes>
        0 -1 9933 8.1581240519881248e-03</internalNodes>
      <leafValues>
        1.4932277798652649e-01 -7.6811820268630981e-01</leafValues></_>
    <_>
      <internalNodes>
        0 -1 77826 4.3476920109242201e-04</internalNodes>
      <leafValues>
        2.2912696003913879e-01 -3.3297851681709290e-01</leafValues></_>
    <_>
      <internalNodes>
        0 -1 84626 1.0019207838922739e-03</internalNodes>
      <leafValues>
        1.7297248542308807e-01 -5.0155144929885864e-01</leafValues></_>
    <_>
      <internalNodes>
        0 -1 109484 -1.0742010548710823e-02</internalNodes>
      <leafValues>
        4.7129014134407043e-01 -1.8253128230571747e-01</leafValues></_>
    <_>
      <internalNodes>
        0 -1 41309 -9.1857300139963627e-04</internalNodes>
      <leafValues>
        -4.8411998152732849e-01 1.9017510116100311e-01</leafValues></_>
    <_>
      <internalNodes>
        0 -1 39002 -2.4261415004730225e-02</internalNodes>
      <leafValues>
        5.0379377603530884e-01 -1.9230949878692627e-01</leafValues></_>
    <_>
      <internalNodes>
        0 -1 0 -1.4505591243505478e-03</internalNodes>
      <leafValues>
        -5.7037776708602905e-01 1.5216352045536041e-01</leafValues></_>
    <_>
      <internalNodes>
        0 -1 78608 9.9687296897172928e-03</internalNodes>
      <leafValues>
        -1.5506212413311005e-01 5.2013534307479858e-01</leafValues></_>
    <_>
      <internalNodes>
        0 -1 110361 3.4810479264706373e-03</internalNodes>
      <leafValues>
        1.2461585551500320e-01 -6.8784707784652710e-01</leafValues></_></weakClassifiers></stage12>
</opencv_storage>
