<?xml version="1.0"?>
<opencv_storage>
<stage16>
  <maxWeakCount>64</maxWeakCount>
  <stageThreshold>-5.6012636423110962e-01</stageThreshold>
  <weakClassifiers>
    <_>
      <internalNodes>
        0 -1 7454 2.1820920519530773e-03</internalNodes>
      <leafValues>
        3.2441940903663635e-01 -3.4078213572502136e-01</leafValues></_>
    <_>
      <internalNodes>
        0 -1 47096 -8.4551202598959208e-04</internalNodes>
      <leafValues>
        -3.3429387211799622e-01 1.1721552163362503e-01</leafValues></_>
    <_>
      <internalNodes>
        0 -1 89800 4.3858843855559826e-03</internalNodes>
      <leafValues>
        -2.7020025253295898e-01 1.3195297122001648e-01</leafValues></_>
    <_>
      <internalNodes>
        0 -1 117135 1.3546203263103962e-02</internalNodes>
      <leafValues>
        -1.5581871569156647e-01 2.3511072993278503e-01</leafValues></_>
    <_>
      <internalNodes>
        0 -1 93035 3.4057735465466976e-03</internalNodes>
      <leafValues>
        -7.9073458909988403e-02 4.4927942752838135e-01</leafValues></_>
    <_>
      <internalNodes>
        0 -1 121523 2.6773014105856419e-03</internalNodes>
      <leafValues>
        7.8691408038139343e-02 -3.4687665104866028e-01</leafValues></_>
    <_>
      <internalNodes>
        0 -1 12347 1.0301701724529266e-01</internalNodes>
      <leafValues>
        5.2746333181858063e-02 -7.8623700141906738e-01</leafValues></_>
    <_>
      <internalNodes>
        0 -1 30127 1.3288050889968872e-02</internalNodes>
      <leafValues>
        -1.6740992665290833e-01 2.4979782104492188e-01</leafValues></_>
    <_>
      <internalNodes>
        0 -1 8739 -6.9355074083432555e-04</internalNodes>
      <leafValues>
        -2.9816573858261108e-01 1.1489406973123550e-01</leafValues></_>
    <_>
      <internalNodes>
        0 -1 589 -4.9778748303651810e-02</internalNodes>
      <leafValues>
        3.3172211050987244e-01 -1.0119204223155975e-01</leafValues></_>
    <_>
      <internalNodes>
        0 -1 68330 -6.8955048918724060e-03</internalNodes>
      <leafValues>
        2.7682131528854370e-01 -1.1840377002954483e-01</leafValues></_>
    <_>
      <internalNodes>
        0 -1 5074 -1.5152014093473554e-03</internalNodes>
      <leafValues>
        -4.2622593045234680e-01 7.2704687714576721e-02</leafValues></_>
    <_>
      <internalNodes>
        0 -1 117451 -1.4862706884741783e-02</internalNodes>
      <leafValues>
        4.0961307287216187e-01 -7.3050871491432190e-02</leafValues></_>
    <_>
      <internalNodes>
        0 -1 69642 -2.1229617297649384e-02</internalNodes>
      <leafValues>
        -6.9207924604415894e-01 4.6787202358245850e-02</leafValues></_>
    <_>
      <internalNodes>
        0 -1 70641 -2.3680755402892828e-03</internalNodes>
      <leafValues>
        2.0372773706912994e-01 -1.5396635234355927e-01</leafValues></_>
    <_>
      <internalNodes>
        0 -1 78604 -6.6369830165058374e-04</internalNodes>
      <leafValues>
        2.2287088632583618e-01 -1.5145380795001984e-01</leafValues></_>
    <_>
      <internalNodes>
        0 -1 111577 -6.6113114356994629e-02</internalNodes>
      <leafValues>
        5.9726166725158691e-01 -5.3080238401889801e-02</leafValues></_>
    <_>
      <internalNodes>
        0 -1 123562 4.0757316164672375e-03</internalNodes>
      <leafValues>
        8.6841613054275513e-02 -4.6512842178344727e-01</leafValues></_>
    <_>
      <internalNodes>
        0 -1 1881 -8.6429284419864416e-04</internalNodes>
      <leafValues>
        -3.3732250332832336e-01 9.5671787858009338e-02</leafValues></_>
    <_>
      <internalNodes>
        0 -1 10911 -1.2597669847309589e-02</internalNodes>
      <leafValues>
        4.7720736265182495e-01 -7.4699983000755310e-02</leafValues></_>
    <_>
      <internalNodes>
        0 -1 104730 -1.0379713028669357e-02</internalNodes>
      <leafValues>
        2.3074869811534882e-01 -1.4622853696346283e-01</leafValues></_>
    <_>
      <internalNodes>
        0 -1 118223 -7.0774438790977001e-04</internalNodes>
      <leafValues>
        -2.2212660312652588e-01 1.7883872985839844e-01</leafValues></_>
    <_>
      <internalNodes>
        0 -1 43927 -3.0534961260855198e-03</internalNodes>
      <leafValues>
        3.1592589616775513e-01 -1.0288861393928528e-01</leafValues></_>
    <_>
      <internalNodes>
        0 -1 52227 -1.9267942989245057e-03</internalNodes>
      <leafValues>
        3.4704130887985229e-01 -1.0921411961317062e-01</leafValues></_>
    <_>
      <internalNodes>
        0 -1 17458 -5.3443224169313908e-04</internalNodes>
      <leafValues>
        -2.7824652194976807e-01 1.2901079654693604e-01</leafValues></_>
    <_>
      <internalNodes>
        0 -1 43349 6.2486324459314346e-03</internalNodes>
      <leafValues>
        -6.9906778633594513e-02 4.9760365486145020e-01</leafValues></_>
    <_>
      <internalNodes>
        0 -1 977 -2.7983001200482249e-04</internalNodes>
      <leafValues>
        -2.4811594188213348e-01 1.4407776296138763e-01</leafValues></_>
    <_>
      <internalNodes>
        0 -1 77450 -3.1293849460780621e-03</internalNodes>
      <leafValues>
        -3.0631101131439209e-01 1.0652046650648117e-01</leafValues></_>
    <_>
      <internalNodes>
        0 -1 7474 2.4160440079867840e-03</internalNodes>
      <leafValues>
        1.0501834005117416e-01 -3.0289295315742493e-01</leafValues></_>
    <_>
      <internalNodes>
        0 -1 113150 2.1828413009643555e-03</internalNodes>
      <leafValues>
        -1.2050964683294296e-01 2.9073700308799744e-01</leafValues></_>
    <_>
      <internalNodes>
        0 -1 120465 -5.3111068904399872e-02</internalNodes>
      <leafValues>
        5.7829713821411133e-01 -6.0973346233367920e-02</leafValues></_>
    <_>
      <internalNodes>
        0 -1 39922 8.2851685583591461e-03</internalNodes>
      <leafValues>
        -1.0622593015432358e-01 3.2112768292427063e-01</leafValues></_>
    <_>
      <internalNodes>
        0 -1 67994 6.7266702651977539e-02</internalNodes>
      <leafValues>
        5.4020378738641739e-02 -6.9033080339431763e-01</leafValues></_>
    <_>
      <internalNodes>
        0 -1 30881 4.5827757567167282e-02</internalNodes>
      <leafValues>
        -9.2376261949539185e-02 4.3703842163085938e-01</leafValues></_>
    <_>
      <internalNodes>
        0 -1 31576 1.9149444997310638e-02</internalNodes>
      <leafValues>
        -1.2139830738306046e-01 3.5102221369743347e-01</leafValues></_>
    <_>
      <internalNodes>
        0 -1 112833 7.1606170386075974e-03</internalNodes>
      <leafValues>
        -8.3434104919433594e-02 4.3571764230728149e-01</leafValues></_>
    <_>
      <internalNodes>
        0 -1 83804 -5.5179823189973831e-02</internalNodes>
      <leafValues>
        -5.9054368734359741e-01 6.1078410595655441e-02</leafValues></_>
    <_>
      <internalNodes>
        0 -1 97849 -3.4988329280167818e-03</internalNodes>
      <leafValues>
        3.0366203188896179e-01 -1.3992896676063538e-01</leafValues></_>
    <_>
      <internalNodes>
        0 -1 88359 -1.2691888026893139e-02</internalNodes>
      <leafValues>
        3.6886051297187805e-01 -1.0442680865526199e-01</leafValues></_>
    <_>
      <internalNodes>
        0 -1 71563 9.1373343020677567e-03</internalNodes>
      <leafValues>
        -1.5269868075847626e-01 2.3087613284587860e-01</leafValues></_>
    <_>
      <internalNodes>
        0 -1 125109 -2.0187958143651485e-03</internalNodes>
      <leafValues>
        -5.0253796577453613e-01 7.1166813373565674e-02</leafValues></_>
    <_>
      <internalNodes>
        0 -1 62839 -9.0994596481323242e-02</internalNodes>
      <leafValues>
        -7.1918052434921265e-01 4.3642330914735794e-02</leafValues></_>
    <_>
      <internalNodes>
        0 -1 63796 -3.3786386251449585e-02</internalNodes>
      <leafValues>
        4.1187825798988342e-01 -1.0488991439342499e-01</leafValues></_>
    <_>
      <internalNodes>
        0 -1 1163 -9.0126716531813145e-04</internalNodes>
      <leafValues>
        2.5337147712707520e-01 -1.4599461853504181e-01</leafValues></_>
    <_>
      <internalNodes>
        0 -1 855 4.2227819561958313e-02</internalNodes>
      <leafValues>
        -7.6189078390598297e-02 4.4923019409179688e-01</leafValues></_>
    <_>
      <internalNodes>
        0 -1 20194 -9.3229345977306366e-02</internalNodes>
      <leafValues>
        4.4649830460548401e-01 -7.3952421545982361e-02</leafValues></_>
    <_>
      <internalNodes>
        0 -1 45400 9.9090784788131714e-03</internalNodes>
      <leafValues>
        -5.4017677903175354e-02 6.1327379941940308e-01</leafValues></_>
    <_>
      <internalNodes>
        0 -1 65580 -6.2992819584906101e-03</internalNodes>
      <leafValues>
        -2.5333806872367859e-01 1.4940859377384186e-01</leafValues></_>
    <_>
      <internalNodes>
        0 -1 122255 -8.8916961103677750e-03</internalNodes>
      <leafValues>
        -4.7958180308341980e-01 7.9831190407276154e-02</leafValues></_>
    <_>
      <internalNodes>
        0 -1 44683 1.6947379335761070e-02</internalNodes>
      <leafValues>
        4.7598499804735184e-02 -6.9660174846649170e-01</leafValues></_>
    <_>
      <internalNodes>
        0 -1 21310 -4.7472594305872917e-03</internalNodes>
      <leafValues>
        2.4182246625423431e-01 -1.5068772435188293e-01</leafValues></_>
    <_>
      <internalNodes>
        0 -1 90746 -2.7673142030835152e-03</internalNodes>
      <leafValues>
        2.9861542582511902e-01 -1.1644423007965088e-01</leafValues></_>
    <_>
      <internalNodes>
        0 -1 123545 2.8174188919365406e-03</internalNodes>
      <leafValues>
        6.8424902856349945e-02 -5.4987013339996338e-01</leafValues></_>
    <_>
      <internalNodes>
        0 -1 114789 5.7751289568841457e-04</internalNodes>
      <leafValues>
        1.2221220135688782e-01 -2.6732951402664185e-01</leafValues></_>
    <_>
      <internalNodes>
        0 -1 110278 -3.2663592137396336e-03</internalNodes>
      <leafValues>
        -4.9230906367301941e-01 7.9534478485584259e-02</leafValues></_>
    <_>
      <internalNodes>
        0 -1 54488 9.2721395194530487e-03</internalNodes>
      <leafValues>
        -5.3929060697555542e-02 7.1256422996520996e-01</leafValues></_>
    <_>
      <internalNodes>
        0 -1 99073 -1.2146154185757041e-03</internalNodes>
      <leafValues>
        1.8624046444892883e-01 -1.8468880653381348e-01</leafValues></_>
    <_>
      <internalNodes>
        0 -1 113810 -5.2125602960586548e-02</internalNodes>
      <leafValues>
        4.1097092628479004e-01 -9.1275691986083984e-02</leafValues></_>
    <_>
      <internalNodes>
        0 -1 71350 -1.9344385713338852e-02</internalNodes>
      <leafValues>
        4.7148782014846802e-01 -6.7293897271156311e-02</leafValues></_>
    <_>
      <internalNodes>
        0 -1 5077 3.1405494082719088e-03</internalNodes>
      <leafValues>
        8.9809097349643707e-02 -3.7760788202285767e-01</leafValues></_>
    <_>
      <internalNodes>
        0 -1 24885 -4.6133352443575859e-03</internalNodes>
      <leafValues>
        3.9797577261924744e-01 -8.6654007434844971e-02</leafValues></_>
    <_>
      <internalNodes>
        0 -1 8470 -3.8868721574544907e-02</internalNodes>
      <leafValues>
        3.2810530066490173e-01 -1.0893723368644714e-01</leafValues></_>
    <_>
      <internalNodes>
        0 -1 61948 2.6247968897223473e-02</internalNodes>
      <leafValues>
        -1.0313446819782257e-01 4.3375772237777710e-01</leafValues></_>
    <_>
      <internalNodes>
        0 -1 60745 -4.3516713194549084e-03</internalNodes>
      <leafValues>
        4.4105985760688782e-01 -7.8147634863853455e-02</leafValues></_></weakClassifiers></stage16>
</opencv_storage>
