<?xml version="1.0"?>
<opencv_storage>
<stage20>
  <maxWeakCount>82</maxWeakCount>
  <stageThreshold>-5.6331205368041992e-01</stageThreshold>
  <weakClassifiers>
    <_>
      <internalNodes>
        0 -1 89650 -3.2119680196046829e-02</internalNodes>
      <leafValues>
        -3.3333334326744080e-01 3.0637422204017639e-01</leafValues></_>
    <_>
      <internalNodes>
        0 -1 89650 -3.1697325408458710e-02</internalNodes>
      <leafValues>
        1. 9.1142151504755020e-03</leafValues></_>
    <_>
      <internalNodes>
        0 -1 89650 -3.1594775617122650e-02</internalNodes>
      <leafValues>
        -1. 9.8937202710658312e-04</leafValues></_>
    <_>
      <internalNodes>
        0 -1 89650 -3.1437918543815613e-02</internalNodes>
      <leafValues>
        1. -5.2603858057409525e-04</leafValues></_>
    <_>
      <internalNodes>
        0 -1 89650 -3.1350798904895782e-02</internalNodes>
      <leafValues>
        -1. 9.9108018912374973e-04</leafValues></_>
    <_>
      <internalNodes>
        0 -1 89650 -3.1088262796401978e-02</internalNodes>
      <leafValues>
        1. -5.2659260109066963e-04</leafValues></_>
    <_>
      <internalNodes>
        0 -1 89650 -3.0733918771147728e-02</internalNodes>
      <leafValues>
        -9.9235606193542480e-01 2.4579302407801151e-03</leafValues></_>
    <_>
      <internalNodes>
        0 -1 89650 -2.9517998918890953e-02</internalNodes>
      <leafValues>
        1. -4.2372830212116241e-03</leafValues></_>
    <_>
      <internalNodes>
        0 -1 89650 -2.9381986707448959e-02</internalNodes>
      <leafValues>
        -1. 9.9897559266537428e-04</leafValues></_>
    <_>
      <internalNodes>
        0 -1 89650 -2.9219724237918854e-02</internalNodes>
      <leafValues>
        1. -1.5982948243618011e-03</leafValues></_>
    <_>
      <internalNodes>
        0 -1 89650 -2.9105350375175476e-02</internalNodes>
      <leafValues>
        -1. 3.0090257059782743e-03</leafValues></_>
    <_>
      <internalNodes>
        0 -1 89650 -2.8949543833732605e-02</internalNodes>
      <leafValues>
        1. -1.0683670407161117e-03</leafValues></_>
    <_>
      <internalNodes>
        0 -1 89650 -2.8894037008285522e-02</internalNodes>
      <leafValues>
        -1. 1.0070489952340722e-03</leafValues></_>
    <_>
      <internalNodes>
        0 -1 89650 -2.8843849897384644e-02</internalNodes>
      <leafValues>
        1. -5.3504511015489697e-04</leafValues></_>
    <_>
      <internalNodes>
        0 -1 89650 -2.8802037239074707e-02</internalNodes>
      <leafValues>
        -1. 1.0090817231684923e-03</leafValues></_>
    <_>
      <internalNodes>
        0 -1 89650 -2.8543794527649879e-02</internalNodes>
      <leafValues>
        1. -2.6838430203497410e-03</leafValues></_>
    <_>
      <internalNodes>
        0 -1 89650 -2.7774937450885773e-02</internalNodes>
      <leafValues>
        -9.8631852865219116e-01 8.0967992544174194e-03</leafValues></_>
    <_>
      <internalNodes>
        0 -1 44235 2.4651084095239639e-02</internalNodes>
      <leafValues>
        8.3429403603076935e-02 -3.8684013485908508e-01</leafValues></_>
    <_>
      <internalNodes>
        0 -1 71485 -4.9194656312465668e-03</internalNodes>
      <leafValues>
        6.3364702463150024e-01 -4.2923495173454285e-02</leafValues></_>
    <_>
      <internalNodes>
        0 -1 37918 7.5708422809839249e-04</internalNodes>
      <leafValues>
        8.1960633397102356e-02 -3.1413725018501282e-01</leafValues></_>
    <_>
      <internalNodes>
        0 -1 89499 -5.8036642149090767e-03</internalNodes>
      <leafValues>
        3.0523380637168884e-01 -9.4267025589942932e-02</leafValues></_>
    <_>
      <internalNodes>
        0 -1 82846 -6.0218162834644318e-02</internalNodes>
      <leafValues>
        3.9215227961540222e-01 -9.2263922095298767e-02</leafValues></_>
    <_>
      <internalNodes>
        0 -1 107534 -8.1757754087448120e-03</internalNodes>
      <leafValues>
        4.2294502258300781e-01 -8.3167694509029388e-02</leafValues></_>
    <_>
      <internalNodes>
        0 -1 62138 6.3359439373016357e-03</internalNodes>
      <leafValues>
        8.1261605024337769e-02 -3.9255645871162415e-01</leafValues></_>
    <_>
      <internalNodes>
        0 -1 476 -1.2846091389656067e-01</internalNodes>
      <leafValues>
        2.6953554153442383e-01 -1.1174948513507843e-01</leafValues></_>
    <_>
      <internalNodes>
        0 -1 106487 4.7922335565090179e-02</internalNodes>
      <leafValues>
        -1.7565701901912689e-01 2.4886144697666168e-01</leafValues></_>
    <_>
      <internalNodes>
        0 -1 24741 -1.2111254036426544e-01</internalNodes>
      <leafValues>
        -5.1035553216934204e-01 9.7053982317447662e-02</leafValues></_>
    <_>
      <internalNodes>
        0 -1 54516 -9.4033256173133850e-03</internalNodes>
      <leafValues>
        4.3237438797950745e-01 -8.5269100964069366e-02</leafValues></_>
    <_>
      <internalNodes>
        0 -1 34346 1.5188127756118774e-02</internalNodes>
      <leafValues>
        -9.7679726779460907e-02 3.0286401510238647e-01</leafValues></_>
    <_>
      <internalNodes>
        0 -1 37918 -1.2850555358454585e-03</internalNodes>
      <leafValues>
        -3.4753605723381042e-01 8.4009729325771332e-02</leafValues></_>
    <_>
      <internalNodes>
        0 -1 5084 5.6843962520360947e-03</internalNodes>
      <leafValues>
        6.8569943308830261e-02 -4.0061837434768677e-01</leafValues></_>
    <_>
      <internalNodes>
        0 -1 67446 5.4788537323474884e-02</internalNodes>
      <leafValues>
        4.5094426721334457e-02 -6.5064388513565063e-01</leafValues></_>
    <_>
      <internalNodes>
        0 -1 102048 -2.9556522349594161e-05</internalNodes>
      <leafValues>
        1.5676650404930115e-01 -2.0083518326282501e-01</leafValues></_>
    <_>
      <internalNodes>
        0 -1 77506 -1.3039330020546913e-02</internalNodes>
      <leafValues>
        -3.6318817734718323e-01 8.7421372532844543e-02</leafValues></_>
    <_>
      <internalNodes>
        0 -1 98824 -9.2143453657627106e-03</internalNodes>
      <leafValues>
        2.7522706985473633e-01 -1.1433472484350204e-01</leafValues></_>
    <_>
      <internalNodes>
        0 -1 83384 2.2762105800211430e-03</internalNodes>
      <leafValues>
        -1.6871562600135803e-01 1.9687123596668243e-01</leafValues></_>
    <_>
      <internalNodes>
        0 -1 89732 -1.6897488385438919e-02</internalNodes>
      <leafValues>
        -4.2376783490180969e-01 7.0019915699958801e-02</leafValues></_>
    <_>
      <internalNodes>
        0 -1 93082 -2.9987534508109093e-03</internalNodes>
      <leafValues>
        2.5482639670372009e-01 -1.1551696062088013e-01</leafValues></_>
    <_>
      <internalNodes>
        0 -1 85215 -5.5082510225474834e-03</internalNodes>
      <leafValues>
        -2.9942771792411804e-01 1.1977677047252655e-01</leafValues></_>
    <_>
      <internalNodes>
        0 -1 24374 8.9924126863479614e-02</internalNodes>
      <leafValues>
        2.9627896845340729e-02 -8.3173090219497681e-01</leafValues></_>
    <_>
      <internalNodes>
        0 -1 124498 -1.9567888230085373e-03</internalNodes>
      <leafValues>
        -3.6680597066879272e-01 7.7484674751758575e-02</leafValues></_>
    <_>
      <internalNodes>
        0 -1 109346 5.2875778637826443e-03</internalNodes>
      <leafValues>
        -7.4292004108428955e-02 4.1767543554306030e-01</leafValues></_>
    <_>
      <internalNodes>
        0 -1 19272 2.3928626906126738e-03</internalNodes>
      <leafValues>
        8.2832187414169312e-02 -3.8818475604057312e-01</leafValues></_>
    <_>
      <internalNodes>
        0 -1 85154 -2.4010270833969116e-02</internalNodes>
      <leafValues>
        -7.8468453884124756e-01 3.7390742450952530e-02</leafValues></_>
    <_>
      <internalNodes>
        0 -1 10950 4.9222990870475769e-02</internalNodes>
      <leafValues>
        -4.1893273591995239e-02 7.5856137275695801e-01</leafValues></_>
    <_>
      <internalNodes>
        0 -1 61780 -1.4644154580309987e-03</internalNodes>
      <leafValues>
        2.4784663319587708e-01 -1.2494411319494247e-01</leafValues></_>
    <_>
      <internalNodes>
        0 -1 71836 -6.6079413518309593e-03</internalNodes>
      <leafValues>
        7.7541273832321167e-01 -3.9290115237236023e-02</leafValues></_>
    <_>
      <internalNodes>
        0 -1 37159 3.7900344468653202e-03</internalNodes>
      <leafValues>
        -7.6240979135036469e-02 3.4360954165458679e-01</leafValues></_>
    <_>
      <internalNodes>
        0 -1 19101 -1.0216799564659595e-03</internalNodes>
      <leafValues>
        2.0336082577705383e-01 -1.4641386270523071e-01</leafValues></_>
    <_>
      <internalNodes>
        0 -1 77448 -2.7757264673709869e-02</internalNodes>
      <leafValues>
        -4.9310341477394104e-01 6.4242504537105560e-02</leafValues></_>
    <_>
      <internalNodes>
        0 -1 15385 1.2184046208858490e-03</internalNodes>
      <leafValues>
        8.1675715744495392e-02 -3.3635795116424561e-01</leafValues></_>
    <_>
      <internalNodes>
        0 -1 117443 8.0089718103408813e-03</internalNodes>
      <leafValues>
        -6.9357424974441528e-02 4.5077696442604065e-01</leafValues></_>
    <_>
      <internalNodes>
        0 -1 51371 1.0410355404019356e-02</internalNodes>
      <leafValues>
        8.3085246384143829e-02 -3.7546482682228088e-01</leafValues></_>
    <_>
      <internalNodes>
        0 -1 112351 3.0385201796889305e-02</internalNodes>
      <leafValues>
        -6.1462085694074631e-02 5.8587199449539185e-01</leafValues></_>
    <_>
      <internalNodes>
        0 -1 117155 -1.4767445623874664e-02</internalNodes>
      <leafValues>
        -8.4781092405319214e-01 4.4418975710868835e-02</leafValues></_>
    <_>
      <internalNodes>
        0 -1 51010 -1.5041201375424862e-02</internalNodes>
      <leafValues>
        3.0600279569625854e-01 -1.0233172774314880e-01</leafValues></_>
    <_>
      <internalNodes>
        0 -1 43888 3.1579911708831787e-02</internalNodes>
      <leafValues>
        4.9832940101623535e-02 -6.4171475172042847e-01</leafValues></_>
    <_>
      <internalNodes>
        0 -1 50321 -9.4285346567630768e-03</internalNodes>
      <leafValues>
        4.2648640275001526e-01 -7.8480154275894165e-02</leafValues></_>
    <_>
      <internalNodes>
        0 -1 118156 2.4006667081266642e-03</internalNodes>
      <leafValues>
        1.1475264281034470e-01 -2.6201465725898743e-01</leafValues></_>
    <_>
      <internalNodes>
        0 -1 4298 1.5043724328279495e-02</internalNodes>
      <leafValues>
        -2.1851013600826263e-01 1.4045757055282593e-01</leafValues></_>
    <_>
      <internalNodes>
        0 -1 104608 2.2330161184072495e-02</internalNodes>
      <leafValues>
        -1.2711289525032043e-01 2.6827746629714966e-01</leafValues></_>
    <_>
      <internalNodes>
        0 -1 114606 9.7963586449623108e-04</internalNodes>
      <leafValues>
        1.1437503248453140e-01 -3.1904432177543640e-01</leafValues></_>
    <_>
      <internalNodes>
        0 -1 27794 -2.7683405205607414e-03</internalNodes>
      <leafValues>
        -3.8980865478515625e-01 7.6784916222095490e-02</leafValues></_>
    <_>
      <internalNodes>
        0 -1 29797 -3.7690917961299419e-03</internalNodes>
      <leafValues>
        2.7975085377693176e-01 -1.2103638052940369e-01</leafValues></_>
    <_>
      <internalNodes>
        0 -1 22833 -1.1200192384421825e-02</internalNodes>
      <leafValues>
        3.6665666103363037e-01 -9.0565584599971771e-02</leafValues></_>
    <_>
      <internalNodes>
        0 -1 47054 -1.1277745477855206e-02</internalNodes>
      <leafValues>
        4.4530022144317627e-01 -6.7627348005771637e-02</leafValues></_>
    <_>
      <internalNodes>
        0 -1 77985 -1.1347706895321608e-03</internalNodes>
      <leafValues>
        2.1004152297973633e-01 -1.5858942270278931e-01</leafValues></_>
    <_>
      <internalNodes>
        0 -1 69861 2.2953965235501528e-03</internalNodes>
      <leafValues>
        -9.4402112066745758e-02 3.7853005528450012e-01</leafValues></_>
    <_>
      <internalNodes>
        0 -1 75974 -3.1423978507518768e-02</internalNodes>
      <leafValues>
        1.7906667292118073e-01 -1.9082471728324890e-01</leafValues></_>
    <_>
      <internalNodes>
        0 -1 123275 1.4649895019829273e-03</internalNodes>
      <leafValues>
        1.0453368723392487e-01 -3.4166094660758972e-01</leafValues></_>
    <_>
      <internalNodes>
        0 -1 69861 -8.5375388152897358e-04</internalNodes>
      <leafValues>
        2.3422704637050629e-01 -1.4726345241069794e-01</leafValues></_>
    <_>
      <internalNodes>
        0 -1 77042 -1.7672989517450333e-02</internalNodes>
      <leafValues>
        -5.5754882097244263e-01 5.8920398354530334e-02</leafValues></_>
    <_>
      <internalNodes>
        0 -1 114804 -5.1325764507055283e-03</internalNodes>
      <leafValues>
        -4.5714470744132996e-01 6.1264604330062866e-02</leafValues></_>
    <_>
      <internalNodes>
        0 -1 120524 -6.4805736765265465e-03</internalNodes>
      <leafValues>
        1.7259436845779419e-01 -1.8720583617687225e-01</leafValues></_>
    <_>
      <internalNodes>
        0 -1 120524 -4.1958797723054886e-02</internalNodes>
      <leafValues>
        -6.9375747442245483e-01 4.9721267074346542e-02</leafValues></_>
    <_>
      <internalNodes>
        0 -1 108692 -1.7561092972755432e-02</internalNodes>
      <leafValues>
        4.1439723968505859e-01 -8.1825964152812958e-02</leafValues></_>
    <_>
      <internalNodes>
        0 -1 119831 1.3384642079472542e-03</internalNodes>
      <leafValues>
        1.3156972825527191e-01 -2.3624511063098907e-01</leafValues></_>
    <_>
      <internalNodes>
        0 -1 79973 -1.5609479742124677e-03</internalNodes>
      <leafValues>
        2.3295782506465912e-01 -1.4834631979465485e-01</leafValues></_>
    <_>
      <internalNodes>
        0 -1 67068 6.2306545674800873e-02</internalNodes>
      <leafValues>
        3.6931738257408142e-02 -7.5027281045913696e-01</leafValues></_>
    <_>
      <internalNodes>
        0 -1 124804 -1.1494441423565149e-03</internalNodes>
      <leafValues>
        -3.9785072207450867e-01 6.3940286636352539e-02</leafValues></_>
    <_>
      <internalNodes>
        0 -1 76846 5.2212374284863472e-03</internalNodes>
      <leafValues>
        -7.1528077125549316e-02 3.8968512415885925e-01</leafValues></_>
    <_>
      <internalNodes>
        0 -1 84190 -4.5918375253677368e-02</internalNodes>
      <leafValues>
        -9.8040878772735596e-01 3.6402035504579544e-02</leafValues></_></weakClassifiers></stage20>
</opencv_storage>
