<?xml version="1.0"?>
<opencv_storage>
<stage5>
  <maxWeakCount>18</maxWeakCount>
  <stageThreshold>-1.1742085218429565e+00</stageThreshold>
  <weakClassifiers>
    <_>
      <internalNodes>
        0 -1 48304 4.2950117588043213e-01</internalNodes>
      <leafValues>
        -1.1650485545396805e-01 7.7178424596786499e-01</leafValues></_>
    <_>
      <internalNodes>
        0 -1 97261 -4.9857042729854584e-02</internalNodes>
      <leafValues>
        4.9309521913528442e-01 -2.8274703025817871e-01</leafValues></_>
    <_>
      <internalNodes>
        0 -1 24219 -6.9968603551387787e-02</internalNodes>
      <leafValues>
        -6.6586619615554810e-01 1.9012351334095001e-01</leafValues></_>
    <_>
      <internalNodes>
        0 -1 109026 -2.2438412532210350e-02</internalNodes>
      <leafValues>
        5.6316745281219482e-01 -2.0391482114791870e-01</leafValues></_>
    <_>
      <internalNodes>
        0 -1 52657 1.3935208320617676e-02</internalNodes>
      <leafValues>
        2.0770302414894104e-01 -6.0091483592987061e-01</leafValues></_>
    <_>
      <internalNodes>
        0 -1 6610 -2.5302000343799591e-02</internalNodes>
      <leafValues>
        5.5871987342834473e-01 -2.2886869311332703e-01</leafValues></_>
    <_>
      <internalNodes>
        0 -1 91333 -1.6488375142216682e-02</internalNodes>
      <leafValues>
        5.8196926116943359e-01 -1.6660574078559875e-01</leafValues></_>
    <_>
      <internalNodes>
        0 -1 88777 2.4253629148006439e-02</internalNodes>
      <leafValues>
        1.6206298768520355e-01 -6.5091639757156372e-01</leafValues></_>
    <_>
      <internalNodes>
        0 -1 67502 8.3830974996089935e-02</internalNodes>
      <leafValues>
        1.1491855978965759e-01 -8.2813245058059692e-01</leafValues></_>
    <_>
      <internalNodes>
        0 -1 73803 -6.0006156563758850e-02</internalNodes>
      <leafValues>
        7.2547018527984619e-01 -1.5747240185737610e-01</leafValues></_>
    <_>
      <internalNodes>
        0 -1 105589 -4.4410289265215397e-03</internalNodes>
      <leafValues>
        -4.2508319020271301e-01 2.5656273961067200e-01</leafValues></_>
    <_>
      <internalNodes>
        0 -1 8754 -2.0826796535402536e-03</internalNodes>
      <leafValues>
        -5.0335973501205444e-01 2.0396496355533600e-01</leafValues></_>
    <_>
      <internalNodes>
        0 -1 108614 -5.3501785732805729e-03</internalNodes>
      <leafValues>
        3.5959824919700623e-01 -2.7045652270317078e-01</leafValues></_>
    <_>
      <internalNodes>
        0 -1 123632 -6.6833561286330223e-03</internalNodes>
      <leafValues>
        -6.1563408374786377e-01 1.6962958872318268e-01</leafValues></_>
    <_>
      <internalNodes>
        0 -1 2868 -4.6279495581984520e-03</internalNodes>
      <leafValues>
        -4.2390573024749756e-01 2.4078239500522614e-01</leafValues></_>
    <_>
      <internalNodes>
        0 -1 85048 4.3468079529702663e-03</internalNodes>
      <leafValues>
        1.2088243663311005e-01 -7.6057130098342896e-01</leafValues></_>
    <_>
      <internalNodes>
        0 -1 79284 -1.8966317176818848e-02</internalNodes>
      <leafValues>
        5.5049383640289307e-01 -2.0743818581104279e-01</leafValues></_>
    <_>
      <internalNodes>
        0 -1 104885 -8.4221418946981430e-03</internalNodes>
      <leafValues>
        4.3864223361015320e-01 -2.1937887370586395e-01</leafValues></_></weakClassifiers></stage5>
</opencv_storage>
