<?xml version="1.0"?>
<opencv_storage>
<stage19>
  <maxWeakCount>68</maxWeakCount>
  <stageThreshold>-4.6601369976997375e-01</stageThreshold>
  <weakClassifiers>
    <_>
      <internalNodes>
        0 -1 112834 -8.6123347282409668e-03</internalNodes>
      <leafValues>
        5.2967035770416260e-01 1.3886462152004242e-01</leafValues></_>
    <_>
      <internalNodes>
        0 -1 112760 7.0247665047645569e-02</internalNodes>
      <leafValues>
        -3.5279858857393265e-02 6.1620706319808960e-01</leafValues></_>
    <_>
      <internalNodes>
        0 -1 61632 2.1097077056765556e-02</internalNodes>
      <leafValues>
        7.0834517478942871e-02 -4.5032954216003418e-01</leafValues></_>
    <_>
      <internalNodes>
        0 -1 110410 1.5651879832148552e-02</internalNodes>
      <leafValues>
        7.8384540975093842e-02 -5.4351985454559326e-01</leafValues></_>
    <_>
      <internalNodes>
        0 -1 73365 3.4455314278602600e-02</internalNodes>
      <leafValues>
        4.3748553842306137e-02 -6.0380178689956665e-01</leafValues></_>
    <_>
      <internalNodes>
        0 -1 74614 -1.9266940653324127e-02</internalNodes>
      <leafValues>
        -3.9932015538215637e-01 6.8825401365756989e-02</leafValues></_>
    <_>
      <internalNodes>
        0 -1 123861 1.5480035915970802e-02</internalNodes>
      <leafValues>
        -7.1742102503776550e-02 3.8892480731010437e-01</leafValues></_>
    <_>
      <internalNodes>
        0 -1 79428 1.0556789347901940e-03</internalNodes>
      <leafValues>
        -1.2070644646883011e-01 2.4052785336971283e-01</leafValues></_>
    <_>
      <internalNodes>
        0 -1 0 -6.8851036485284567e-04</internalNodes>
      <leafValues>
        -3.5158297419548035e-01 6.7902073264122009e-02</leafValues></_>
    <_>
      <internalNodes>
        0 -1 7939 3.6967936903238297e-03</internalNodes>
      <leafValues>
        7.4710540473461151e-02 -4.5797988772392273e-01</leafValues></_>
    <_>
      <internalNodes>
        0 -1 79428 -2.0391114521771669e-03</internalNodes>
      <leafValues>
        2.8533372282981873e-01 -1.0413232445716858e-01</leafValues></_>
    <_>
      <internalNodes>
        0 -1 86246 -7.3956530541181564e-03</internalNodes>
      <leafValues>
        -6.1181372404098511e-01 5.5040135979652405e-02</leafValues></_>
    <_>
      <internalNodes>
        0 -1 69908 2.9179532080888748e-02</internalNodes>
      <leafValues>
        3.9017055183649063e-02 -7.3962503671646118e-01</leafValues></_>
    <_>
      <internalNodes>
        0 -1 65719 -6.8874964490532875e-03</internalNodes>
      <leafValues>
        3.0106493830680847e-01 -1.0590960085391998e-01</leafValues></_>
    <_>
      <internalNodes>
        0 -1 69637 -1.2021458148956299e-01</internalNodes>
      <leafValues>
        -6.0452967882156372e-01 5.6998826563358307e-02</leafValues></_>
    <_>
      <internalNodes>
        0 -1 71531 -2.0080287009477615e-02</internalNodes>
      <leafValues>
        5.9614002704620361e-01 -5.2423086017370224e-02</leafValues></_>
    <_>
      <internalNodes>
        0 -1 46656 6.9391550496220589e-03</internalNodes>
      <leafValues>
        -5.3756039589643478e-02 5.6035029888153076e-01</leafValues></_>
    <_>
      <internalNodes>
        0 -1 97844 -8.8363131508231163e-03</internalNodes>
      <leafValues>
        -5.7905131578445435e-01 5.7768367230892181e-02</leafValues></_>
    <_>
      <internalNodes>
        0 -1 93879 3.0884576961398125e-02</internalNodes>
      <leafValues>
        -4.5490238815546036e-02 6.5468508005142212e-01</leafValues></_>
    <_>
      <internalNodes>
        0 -1 114245 -4.1893370449542999e-02</internalNodes>
      <leafValues>
        4.7781944274902344e-01 -6.4890950918197632e-02</leafValues></_>
    <_>
      <internalNodes>
        0 -1 105114 -1.6364701092243195e-02</internalNodes>
      <leafValues>
        3.2967898249626160e-01 -9.2886090278625488e-02</leafValues></_>
    <_>
      <internalNodes>
        0 -1 28050 2.2440523025579751e-05</internalNodes>
      <leafValues>
        -1.5726529061794281e-01 1.8229807913303375e-01</leafValues></_>
    <_>
      <internalNodes>
        0 -1 118140 2.5556976906955242e-03</internalNodes>
      <leafValues>
        9.3164242804050446e-02 -3.1680357456207275e-01</leafValues></_>
    <_>
      <internalNodes>
        0 -1 99821 -1.8581219017505646e-02</internalNodes>
      <leafValues>
        9.1688412427902222e-01 -2.9797283932566643e-02</leafValues></_>
    <_>
      <internalNodes>
        0 -1 34739 -9.3916766345500946e-03</internalNodes>
      <leafValues>
        6.3835483789443970e-01 -3.4479148685932159e-02</leafValues></_>
    <_>
      <internalNodes>
        0 -1 35732 8.7797846645116806e-03</internalNodes>
      <leafValues>
        -7.2164893150329590e-02 4.0659552812576294e-01</leafValues></_>
    <_>
      <internalNodes>
        0 -1 26047 1.4968315372243524e-03</internalNodes>
      <leafValues>
        7.5946435332298279e-02 -4.2026922106742859e-01</leafValues></_>
    <_>
      <internalNodes>
        0 -1 104867 -6.3652452081441879e-03</internalNodes>
      <leafValues>
        2.1039687097072601e-01 -1.3650280237197876e-01</leafValues></_>
    <_>
      <internalNodes>
        0 -1 53362 -8.9880935847759247e-03</internalNodes>
      <leafValues>
        -5.1459878683090210e-01 6.1663303524255753e-02</leafValues></_>
    <_>
      <internalNodes>
        0 -1 93505 -6.1174780130386353e-03</internalNodes>
      <leafValues>
        3.9710238575935364e-01 -7.4429191648960114e-02</leafValues></_>
    <_>
      <internalNodes>
        0 -1 115696 -3.5693991929292679e-02</internalNodes>
      <leafValues>
        -5.9376293420791626e-01 5.4872289299964905e-02</leafValues></_>
    <_>
      <internalNodes>
        0 -1 54506 5.4118032567203045e-03</internalNodes>
      <leafValues>
        -7.7328562736511230e-02 4.6515104174613953e-01</leafValues></_>
    <_>
      <internalNodes>
        0 -1 112342 -2.7117388322949409e-02</internalNodes>
      <leafValues>
        2.3332607746124268e-01 -1.2265266478061676e-01</leafValues></_>
    <_>
      <internalNodes>
        0 -1 62609 -1.6855685971677303e-03</internalNodes>
      <leafValues>
        1.9087865948677063e-01 -1.5765009820461273e-01</leafValues></_>
    <_>
      <internalNodes>
        0 -1 76606 -2.1435247361660004e-01</internalNodes>
      <leafValues>
        -6.3378196954727173e-01 5.2074767649173737e-02</leafValues></_>
    <_>
      <internalNodes>
        0 -1 74525 6.6576629877090454e-02</internalNodes>
      <leafValues>
        1.0905401408672333e-01 -2.8694868087768555e-01</leafValues></_>
    <_>
      <internalNodes>
        0 -1 97435 6.5176011994481087e-03</internalNodes>
      <leafValues>
        -4.8629440367221832e-02 6.4669799804687500e-01</leafValues></_>
    <_>
      <internalNodes>
        0 -1 91467 -9.9959857761859894e-03</internalNodes>
      <leafValues>
        -6.5619117021560669e-01 5.6731421500444412e-02</leafValues></_>
    <_>
      <internalNodes>
        0 -1 45500 -9.9271368235349655e-03</internalNodes>
      <leafValues>
        -4.4612231850624084e-01 7.6369039714336395e-02</leafValues></_>
    <_>
      <internalNodes>
        0 -1 17 7.5336950831115246e-03</internalNodes>
      <leafValues>
        4.9331706017255783e-02 -5.4395610094070435e-01</leafValues></_>
    <_>
      <internalNodes>
        0 -1 21169 5.6944430980365723e-05</internalNodes>
      <leafValues>
        -1.6255275905132294e-01 2.0626854896545410e-01</leafValues></_>
    <_>
      <internalNodes>
        0 -1 41631 -2.0221213996410370e-01</internalNodes>
      <leafValues>
        7.8391367197036743e-01 -4.2080115526914597e-02</leafValues></_>
    <_>
      <internalNodes>
        0 -1 85399 1.5798720996826887e-03</internalNodes>
      <leafValues>
        -1.1432672291994095e-01 2.8004834055900574e-01</leafValues></_>
    <_>
      <internalNodes>
        0 -1 85046 3.4261024557054043e-03</internalNodes>
      <leafValues>
        -7.1955583989620209e-02 4.6913537383079529e-01</leafValues></_>
    <_>
      <internalNodes>
        0 -1 91478 8.1987734884023666e-03</internalNodes>
      <leafValues>
        7.3328912258148193e-02 -4.8120075464248657e-01</leafValues></_>
    <_>
      <internalNodes>
        0 -1 85052 1.1246268637478352e-02</internalNodes>
      <leafValues>
        3.5482343286275864e-02 -7.6549988985061646e-01</leafValues></_>
    <_>
      <internalNodes>
        0 -1 28814 3.9676865562796593e-03</internalNodes>
      <leafValues>
        4.5830186456441879e-02 -5.4483419656753540e-01</leafValues></_>
    <_>
      <internalNodes>
        0 -1 54173 2.2270034998655319e-02</internalNodes>
      <leafValues>
        5.0163555890321732e-02 -5.7541573047637939e-01</leafValues></_>
    <_>
      <internalNodes>
        0 -1 30548 2.4472285062074661e-02</internalNodes>
      <leafValues>
        -1.7303627729415894e-01 1.6990555822849274e-01</leafValues></_>
    <_>
      <internalNodes>
        0 -1 72826 1.9282317161560059e-01</internalNodes>
      <leafValues>
        5.1928602159023285e-02 -7.0199131965637207e-01</leafValues></_>
    <_>
      <internalNodes>
        0 -1 112259 -2.4691892787814140e-02</internalNodes>
      <leafValues>
        5.1424342393875122e-01 -6.9665938615798950e-02</leafValues></_>
    <_>
      <internalNodes>
        0 -1 94476 -5.9536623302847147e-04</internalNodes>
      <leafValues>
        1.8551978468894958e-01 -1.7123080790042877e-01</leafValues></_>
    <_>
      <internalNodes>
        0 -1 77353 2.4497883860021830e-03</internalNodes>
      <leafValues>
        -1.0337993502616882e-01 2.9742035269737244e-01</leafValues></_>
    <_>
      <internalNodes>
        0 -1 78053 -2.5832671672105789e-03</internalNodes>
      <leafValues>
        3.0595684051513672e-01 -1.2084262073040009e-01</leafValues></_>
    <_>
      <internalNodes>
        0 -1 62402 1.7451394349336624e-02</internalNodes>
      <leafValues>
        5.7667065411806107e-02 -5.5817800760269165e-01</leafValues></_>
    <_>
      <internalNodes>
        0 -1 124401 3.1779049895703793e-03</internalNodes>
      <leafValues>
        9.5403581857681274e-02 -3.1341350078582764e-01</leafValues></_>
    <_>
      <internalNodes>
        0 -1 56094 -7.3044382035732269e-02</internalNodes>
      <leafValues>
        -4.7779652476310730e-01 6.1075683683156967e-02</leafValues></_>
    <_>
      <internalNodes>
        0 -1 8941 -4.5587350614368916e-03</internalNodes>
      <leafValues>
        2.4806927144527435e-01 -1.1924775689840317e-01</leafValues></_>
    <_>
      <internalNodes>
        0 -1 13338 2.7072173543274403e-03</internalNodes>
      <leafValues>
        5.9826333075761795e-02 -5.0364643335342407e-01</leafValues></_>
    <_>
      <internalNodes>
        0 -1 99131 -3.7449430674314499e-03</internalNodes>
      <leafValues>
        3.5070583224296570e-01 -9.0121328830718994e-02</leafValues></_>
    <_>
      <internalNodes>
        0 -1 113603 2.0619593560695648e-02</internalNodes>
      <leafValues>
        5.8217395097017288e-02 -5.7218772172927856e-01</leafValues></_>
    <_>
      <internalNodes>
        0 -1 104639 -9.5622939988970757e-03</internalNodes>
      <leafValues>
        2.9754558205604553e-01 -1.2579530477523804e-01</leafValues></_>
    <_>
      <internalNodes>
        0 -1 114331 -1.3533048331737518e-03</internalNodes>
      <leafValues>
        -2.9317870736122131e-01 1.3486923277378082e-01</leafValues></_>
    <_>
      <internalNodes>
        0 -1 62573 1.7211120575666428e-02</internalNodes>
      <leafValues>
        6.6079892218112946e-02 -4.9526259303092957e-01</leafValues></_>
    <_>
      <internalNodes>
        0 -1 64433 4.3540261685848236e-02</internalNodes>
      <leafValues>
        -5.3862050175666809e-02 6.1145657300949097e-01</leafValues></_>
    <_>
      <internalNodes>
        0 -1 112488 -1.5367924235761166e-02</internalNodes>
      <leafValues>
        7.8045898675918579e-01 -3.4480255097150803e-02</leafValues></_>
    <_>
      <internalNodes>
        0 -1 66925 -8.5642375051975250e-03</internalNodes>
      <leafValues>
        -3.5069507360458374e-01 9.1492712497711182e-02</leafValues></_>
    <_>
      <internalNodes>
        0 -1 107287 -1.2351647950708866e-02</internalNodes>
      <leafValues>
        2.8271532058715820e-01 -1.1854149401187897e-01</leafValues></_></weakClassifiers></stage19>
</opencv_storage>
